{"layout":{"layers":[{"layer_type":"Input","activation_fn":"None","num_neurons":5},{"layer_type":"FeedForward","activation_fn":"Linear","num_neurons":1},{"layer_type":"FeedForward","activation_fn":"Linear","num_neurons":1}]},"params":{"weights":[-0.6759553411975503,0.9550906282331413,-0.7800925299166449,0.3286676892772974,0.7913500469692588,-0.4663701957461838],"biases":[0.37432814019866884,-0.40298803616315126],"others":[]},"all_costs":[[[72.8063992095665],[72.16707867871524],[71.53790884428095],[70.91866833838725],[70.3091418817749]],[[69.70912008228714],[69.11839924113184],[68.53678116657811],[67.96407299476242],[67.40008701729415]],[[66.84464051536692],[66.29755560009563],[65.75865905881194],[65.22778220706624],[64.70476074609225]],[[64.18943462550634],[63.681647911020704],[63.181248656962424],[62.68808878339906],[62.20202395768037]],[[61.72291348021581],[61.25062017431453],[60.78501027992309],[60.325953351103614],[59.87332215710205]],[[59.426992586863136],[58.98684355685505],[58.55275692207266],[58.12461739009462],[57.702312438074244]],[[57.2857322325504],[56.87476955196836],[56.469319711807],[56.06928049221136],[55.674552068035496]],[[55.28503694120355],[54.90063987530189],[54.521267832317484],[54.146829911443],[53.77723728987096]],[[53.412403165503115],[53.05224270150494],[52.696672972636414],[52.345612913295],[51.99898326720794]],[[51.65670653871424],[51.31870694557887],[50.984910373284436],[50.65524433074705],[50.32963790740617]]],"avg_costs":[[72.8063992095665,72.16707867871524,71.53790884428095,70.91866833838725,70.3091418817749],[69.70912008228714,69.11839924113184,68.53678116657811,67.96407299476242,67.40008701729415],[66.84464051536692,66.29755560009563,65.75865905881194,65.22778220706624,64.70476074609225],[64.18943462550634,63.681647911020704,63.181248656962424,62.68808878339906,62.20202395768037],[61.72291348021581,61.25062017431453,60.78501027992309,60.325953351103614,59.87332215710205],[59.426992586863136,58.98684355685505,58.55275692207266,58.12461739009462,57.702312438074244],[57.2857322325504,56.87476955196836,56.469319711807,56.06928049221136,55.674552068035496],[55.28503694120355,54.90063987530189,54.521267832317484,54.146829911443,53.77723728987096],[53.412403165503115,53.05224270150494,52.696672972636414,52.345612913295,51.99898326720794],[51.65670653871424,51.31870694557887,50.984910373284436,50.65524433074705,50.32963790740617]],"all_grads":[[[0.0,10.900217921679623,46.32592616713839,186.2120561620269,38.15076272587868,-160.4041215097356,-7.981818253876748,0.0],[0.0,10.819550767613613,45.983090762357854,184.8339922800659,37.86842768664765,-158.98149775397044,-7.973949443402763,0.0],[0.0,10.740011801734667,45.64505015737233,183.47520161296723,37.590041306071335,-157.57857476190503,-7.966007290334332,0.0],[0.0,10.661578894456923,45.31171030144192,182.1353061136391,37.31552613059924,-156.19496280157898,-7.957995409416286,0.0],[0.0,10.584230474728058,44.982979517594245,180.81393727660432,37.04480666154821,-154.83028201873543,-7.949917285226402,0.0]],[[0.0,10.507945512844413,44.658768429588754,179.5107358444254,36.77780929495545,-153.4841621320819,-7.941776277058697,0.0],[0.0,10.432703503888686,44.338989891526914,178.22535152476505,36.514462263610405,-152.15624213961217,-7.933575623605147,0.0],[0.0,10.358484451764207,44.02355891999788,176.95744271763854,36.25469558117473,-150.84617003552813,-7.925318447445042,0.0],[0.0,10.28526885380121,43.71239262865514,175.70667625243732,35.99844098830423,-149.55360253732272,-7.917007759350726,0.0],[0.0,10.21303768591144,43.40541016512362,174.47272713432042,35.74563190069004,-148.27820482260455,-7.90864646241805,0.0]],[[0.0,10.141772388268743,43.10253265014215,173.25527829959103,35.4962033589406,-147.01965027526458,-7.9002373560294,0.0],[0.0,10.071454851494176,42.803683118850245,172.05402037969216,35.25009198022962,-145.77762024060544,-7.891783139656868,0.0],[0.0,10.002067403325205,42.508786464132115,170.86865147347226,35.00723591163822,-144.55180378906763,-7.88328641651259,0.0],[0.0,9.933592795749577,42.2177693819357,169.69887692738862,34.76757478512352,-143.34189748820876,-7.874749697053192,0.0],[0.0,9.86601419258512,41.930560318486755,168.54440912332913,34.53104967404792,-142.14760518260158,-7.866175402344615,0.0]],[[0.0,9.799315157487834,41.647089419323294,167.4049672737505,34.29760305120742,-140.9686377813381,-7.857565867293619,0.0],[0.0,9.733479642371217,41.36728848007767,166.2802772238416,34.067178748299256,-139.80471305283498,-7.848923343751693,0.0],[0.0,9.668491976220663,41.091090898937814,165.17007126043632,33.83972191677232,-138.65555542665425,-7.840250003496974,0.0],[0.0,9.604336854287444,40.81843163072163,164.07408792741052,33.61517899000606,-137.5208958020628,-7.83154794109948,0.0],[0.0,9.54099932764742,40.54924714250153,162.9920718473101,33.39349764676597,-136.4004713630671,-7.822819176674648,0.0]],[[0.0,9.47846479311038,40.28347537071911,161.923773548969,33.17462677588633,-135.29402539967268,-7.814065658530034,0.0],[0.0,9.41671898346647,40.0210556797325,160.86894930088553,32.95851644213265,-134.20130713512654,-7.805289265709701,0.0],[0.0,9.35574795805675,39.76192882174118,159.82736095013612,32.74511785319862,-133.12207155891335,-7.796491810440668,0.0],[0.0,9.295538093655502,39.50603689803588,158.79877576661482,32.53438332779426,-132.05607926528452,-7.7876750404855795,0.0],[0.0,9.23607607565245,39.25332332152291,157.78296629239605,32.326266264783584,-131.0030962971101,-7.7788406414055515,0.0]],[[0.0,9.177348889523547,39.00373278047507,156.77971019602725,32.120721113332415,-129.9628939948516,-7.769990238736954,0.0],[0.0,9.119343812579459,38.7572112034627,155.78879013156578,31.91770334402811,-128.93524885046304,-7.7611254000857555,0.0],[0.0,9.06204840598139,38.513705725420905,154.80999360218206,31.717169420934866,-127.91994236603482,-7.752247637142839,0.0],[0.0,9.005450507014238,38.273164654810515,153.84311282815992,31.519076774549838,-126.91676091700475,-7.7433584076235915,0.0],[0.0,8.949538221607602,38.035537441832304,152.88794461912985,31.323383775626606,-125.92549561976521,-7.734459117134877,0.0]],[[0.0,8.894299917095442,37.80077464765562,151.94429025038048,31.130049709834047,-124.94594220350527,-7.72555112097239,0.0],[0.0,8.83972421520569,37.56882791462418,151.0119553430972,30.939034753219918,-123.97790088613095,-7.716635725851214,0.0],[0.0,8.785799985271382,37.33964993740337,150.09074974838612,30.75029994844984,-123.0211762541163,-7.7077141915723795,0.0],[0.0,8.73251633765527,37.11319443503489,149.18048743494418,30.563807181793443,-122.07557714613993,-7.698787732627917,0.0],[0.0,8.679862617380206,36.88941612386588,148.2809863802452,30.379519160830725,-121.14091654037186,-7.689857519746988,0.0]],[[0.0,8.627828397957872,36.668270691320956,147.39206846511365,30.197399392852553,-120.21701144527782,-7.680924681385401,0.0],[0.0,8.576403475408783,36.449714770487326,146.5135593715667,30.017412163930743,-119.30368279381582,-7.671990305160832,0.0],[0.0,8.52557786246671,36.23370591548352,145.6452884838063,29.83952251863349,-118.4007553409029,-7.663055439235871,0.0],[0.0,8.475341782961022,36.02020257758434,144.78708879225078,29.663696240363578,-117.50805756403685,-7.654121093651016,0.0],[0.0,8.425685666370637,35.809164082075206,143.93879680049838,29.489899832297233,-116.62542156696072,-7.6451882416095645,0.0]],[[0.0,8.376600142543554,35.6005506058101,143.10025243511905,29.31810049890244,-115.75268298626284,-7.6362578207163105,0.0],[0.0,8.328076036576212,35.3943231554489,142.27129895817697,29.148266128016743,-114.88968090081079,-7.627330734171886,0.0],[0.0,8.280104363847057,35.19044354635,141.45178288238725,28.980365273464706,-114.03625774391853,-7.618407851924429,0.0],[0.0,8.232676325199021,34.98887438209584,140.64155388881662,28.814367138196573,-113.19225921815377,-7.609490011780313,0.0],[0.0,8.185783302265754,34.789579034629455,139.84046474703996,28.65024155793014,-112.35753421269327,-7.600578020475467,0.0]],[[0.0,8.1394168529367,34.59252162498097,139.04837123766862,28.48795898527845,-111.5319347231386,-7.591672654708849,0.0],[0.0,8.093568706956223,34.39766700456395,138.2651320771688,28.32749047434678,-110.71531577370853,-7.582774662139509,0.0],[0.0,8.048230761652302,34.20498073702229,137.49060884489353,28.168807665783063,-109.90753534172684,-7.57388476234867,0.0],[0.0,8.003395077790332,34.014429080608906,136.7246659122515,28.011882772266162,-109.10845428432756,-7.565003647768117,0.0],[0.0,7.95905387554785,33.825978971078364,135.96717037394245,27.856688564417478,-108.31793626730324,-7.556131984576243,0.0]]]}